digraph Tree {
node [shape=box] ;
0 [label="Agency_Code <= 0.5\ngini = 0.42\nsamples = 2100\nvalue = [1471, 629]\nclass = no"] ;
1 [label="Sales <= 57.675\ngini = 0.484\nsamples = 670\nvalue = [276, 394]\nclass = yes"] ;
0 -> 1 [labeldistance=2.5, labelangle=45, headlabel="True"] ;
2 [label="Sales <= 15.5\ngini = 0.496\nsamples = 377\nvalue = [206, 171]\nclass = no"] ;
1 -> 2 ;
3 [label="gini = 0.245\nsamples = 70\nvalue = [60, 10]\nclass = no"] ;
2 -> 3 ;
4 [label="Commision <= 12.315\ngini = 0.499\nsamples = 307\nvalue = [146, 161]\nclass = yes"] ;
2 -> 4 ;
5 [label="Duration <= 7.5\ngini = 0.491\nsamples = 259\nvalue = [112, 147]\nclass = yes"] ;
4 -> 5 ;
6 [label="gini = 0.49\nsamples = 56\nvalue = [32, 24]\nclass = no"] ;
5 -> 6 ;
7 [label="gini = 0.478\nsamples = 203\nvalue = [80, 123]\nclass = yes"] ;
5 -> 7 ;
8 [label="gini = 0.413\nsamples = 48\nvalue = [34, 14]\nclass = no"] ;
4 -> 8 ;
9 [label="Duration <= 23.5\ngini = 0.364\nsamples = 293\nvalue = [70, 223]\nclass = yes"] ;
1 -> 9 ;
10 [label="gini = 0.478\nsamples = 48\nvalue = [19, 29]\nclass = yes"] ;
9 -> 10 ;
11 [label="Age <= 52.5\ngini = 0.33\nsamples = 245\nvalue = [51, 194]\nclass = yes"] ;
9 -> 11 ;
12 [label="Age <= 26.5\ngini = 0.301\nsamples = 211\nvalue = [39, 172]\nclass = yes"] ;
11 -> 12 ;
13 [label="gini = 0.444\nsamples = 36\nvalue = [12, 24]\nclass = yes"] ;
12 -> 13 ;
14 [label="gini = 0.261\nsamples = 175\nvalue = [27, 148]\nclass = yes"] ;
12 -> 14 ;
15 [label="gini = 0.457\nsamples = 34\nvalue = [12, 22]\nclass = yes"] ;
11 -> 15 ;
16 [label="Sales <= 32.5\ngini = 0.275\nsamples = 1430\nvalue = [1195, 235]\nclass = no"] ;
0 -> 16 [labeldistance=2.5, labelangle=-45, headlabel="False"] ;
17 [label="Product Name <= 1.5\ngini = 0.161\nsamples = 783\nvalue = [714, 69]\nclass = no"] ;
16 -> 17 ;
18 [label="Duration <= 5.5\ngini = 0.097\nsamples = 430\nvalue = [408, 22]\nclass = no"] ;
17 -> 18 ;
19 [label="gini = 0.0\nsamples = 80\nvalue = [80, 0]\nclass = no"] ;
18 -> 19 ;
20 [label="Age <= 30.5\ngini = 0.118\nsamples = 350\nvalue = [328, 22]\nclass = no"] ;
18 -> 20 ;
21 [label="gini = 0.0\nsamples = 41\nvalue = [41, 0]\nclass = no"] ;
20 -> 21 ;
22 [label="gini = 0.132\nsamples = 309\nvalue = [287, 22]\nclass = no"] ;
20 -> 22 ;
23 [label="Duration <= 35.5\ngini = 0.231\nsamples = 353\nvalue = [306, 47]\nclass = no"] ;
17 -> 23 ;
24 [label="Sales <= 20.5\ngini = 0.165\nsamples = 242\nvalue = [220, 22]\nclass = no"] ;
23 -> 24 ;
25 [label="gini = 0.06\nsamples = 130\nvalue = [126, 4]\nclass = no"] ;
24 -> 25 ;
26 [label="gini = 0.27\nsamples = 112\nvalue = [94, 18]\nclass = no"] ;
24 -> 26 ;
27 [label="gini = 0.349\nsamples = 111\nvalue = [86, 25]\nclass = no"] ;
23 -> 27 ;
28 [label="Product Name <= 1.5\ngini = 0.381\nsamples = 647\nvalue = [481, 166]\nclass = no"] ;
16 -> 28 ;
29 [label="Agency_Code <= 2.5\ngini = 0.199\nsamples = 205\nvalue = [182, 23]\nclass = no"] ;
28 -> 29 ;
30 [label="Sales <= 60.5\ngini = 0.12\nsamples = 140\nvalue = [131, 9]\nclass = no"] ;
29 -> 30 ;
31 [label="gini = 0.18\nsamples = 80\nvalue = [72, 8]\nclass = no"] ;
30 -> 31 ;
32 [label="gini = 0.033\nsamples = 60\nvalue = [59, 1]\nclass = no"] ;
30 -> 32 ;
33 [label="gini = 0.338\nsamples = 65\nvalue = [51, 14]\nclass = no"] ;
29 -> 33 ;
34 [label="Product Name <= 2.5\ngini = 0.438\nsamples = 442\nvalue = [299, 143]\nclass = no"] ;
28 -> 34 ;
35 [label="Age <= 32.5\ngini = 0.42\nsamples = 407\nvalue = [285, 122]\nclass = no"] ;
34 -> 35 ;
36 [label="gini = 0.485\nsamples = 92\nvalue = [54, 38]\nclass = no"] ;
35 -> 36 ;
37 [label="gini = 0.391\nsamples = 315\nvalue = [231, 84]\nclass = no"] ;
35 -> 37 ;
38 [label="gini = 0.48\nsamples = 35\nvalue = [14, 21]\nclass = yes"] ;
34 -> 38 ;
}